digraph Tree {
node [shape=box, style="filled, rounded", color="black", fontname="helvetica"] ;
edge [fontname="helvetica"] ;
0 [label="adult_male <= 0.5\ngini = 0.464\nsamples = 178\nvalue = [113, 65]", fillcolor="#f4c9ab"] ;
1 [label="class <= 1.5\ngini = 0.393\nsamples = 67\nvalue = [18, 49]", fillcolor="#82c1ef"] ;
0 -> 1 [labeldistance=2.5, labelangle=45, headlabel="True"] ;
2 [label="fare <= 143.592\ngini = 0.059\nsamples = 33\nvalue = [1, 32]", fillcolor="#3fa0e6"] ;
1 -> 2 ;
3 [label="gini = 0.0\nsamples = 31\nvalue = [0, 31]", fillcolor="#399de5"] ;
2 -> 3 ;
4 [label="parch <= 1.0\ngini = 0.5\nsamples = 2\nvalue = [1, 1]", fillcolor="#ffffff"] ;
2 -> 4 ;
5 [label="gini = 0.0\nsamples = 1\nvalue = [0, 1]", fillcolor="#399de5"] ;
4 -> 5 ;
6 [label="gini = 0.0\nsamples = 1\nvalue = [1, 0]", fillcolor="#e58139"] ;
4 -> 6 ;
7 [label="fare <= 25.575\ngini = 0.5\nsamples = 34\nvalue = [17, 17]", fillcolor="#ffffff"] ;
1 -> 7 ;
8 [label="fare <= 14.977\ngini = 0.485\nsamples = 29\nvalue = [12, 17]", fillcolor="#c5e2f7"] ;
7 -> 8 ;
9 [label="fare <= 9.079\ngini = 0.499\nsamples = 23\nvalue = [12, 11]", fillcolor="#fdf5ef"] ;
8 -> 9 ;
10 [label="alone <= 0.5\ngini = 0.457\nsamples = 17\nvalue = [6, 11]", fillcolor="#a5d2f3"] ;
9 -> 10 ;
11 [label="gini = 0.0\nsamples = 1\nvalue = [1, 0]", fillcolor="#e58139"] ;
10 -> 11 ;
12 [label="fare <= 6.99\ngini = 0.43\nsamples = 16\nvalue = [5, 11]", fillcolor="#93caf1"] ;
10 -> 12 ;
13 [label="gini = 0.0\nsamples = 1\nvalue = [1, 0]", fillcolor="#e58139"] ;
12 -> 13 ;
14 [label="age <= 38.0\ngini = 0.391\nsamples = 15\nvalue = [4, 11]", fillcolor="#81c1ee"] ;
12 -> 14 ;
15 [label="fare <= 7.802\ngini = 0.337\nsamples = 14\nvalue = [3, 11]", fillcolor="#6fb8ec"] ;
14 -> 15 ;
16 [label="fare <= 7.64\ngini = 0.198\nsamples = 9\nvalue = [1, 8]", fillcolor="#52a9e8"] ;
15 -> 16 ;
17 [label="fare <= 7.562\ngini = 0.444\nsamples = 3\nvalue = [1, 2]", fillcolor="#9ccef2"] ;
16 -> 17 ;
18 [label="gini = 0.0\nsamples = 2\nvalue = [0, 2]", fillcolor="#399de5"] ;
17 -> 18 ;
19 [label="gini = 0.0\nsamples = 1\nvalue = [1, 0]", fillcolor="#e58139"] ;
17 -> 19 ;
20 [label="gini = 0.0\nsamples = 6\nvalue = [0, 6]", fillcolor="#399de5"] ;
16 -> 20 ;
21 [label="age <= 20.0\ngini = 0.48\nsamples = 5\nvalue = [2, 3]", fillcolor="#bddef6"] ;
15 -> 21 ;
22 [label="gini = 0.0\nsamples = 1\nvalue = [1, 0]", fillcolor="#e58139"] ;
21 -> 22 ;
23 [label="age <= 27.5\ngini = 0.375\nsamples = 4\nvalue = [1, 3]", fillcolor="#7bbeee"] ;
21 -> 23 ;
24 [label="gini = 0.0\nsamples = 2\nvalue = [0, 2]", fillcolor="#399de5"] ;
23 -> 24 ;
25 [label="fare <= 8.367\ngini = 0.5\nsamples = 2\nvalue = [1, 1]", fillcolor="#ffffff"] ;
23 -> 25 ;
26 [label="gini = 0.0\nsamples = 1\nvalue = [1, 0]", fillcolor="#e58139"] ;
25 -> 26 ;
27 [label="gini = 0.0\nsamples = 1\nvalue = [0, 1]", fillcolor="#399de5"] ;
25 -> 27 ;
28 [label="gini = 0.0\nsamples = 1\nvalue = [1, 0]", fillcolor="#e58139"] ;
14 -> 28 ;
29 [label="gini = 0.0\nsamples = 6\nvalue = [6, 0]", fillcolor="#e58139"] ;
9 -> 29 ;
30 [label="gini = 0.0\nsamples = 6\nvalue = [0, 6]", fillcolor="#399de5"] ;
8 -> 30 ;
31 [label="gini = 0.0\nsamples = 5\nvalue = [5, 0]", fillcolor="#e58139"] ;
7 -> 31 ;
32 [label="class <= 0.5\ngini = 0.247\nsamples = 111\nvalue = [95, 16]", fillcolor="#e9965a"] ;
0 -> 32 [labeldistance=2.5, labelangle=-45, headlabel="False"] ;
33 [label="parch <= 0.5\ngini = 0.436\nsamples = 28\nvalue = [19, 9]", fillcolor="#f1bd97"] ;
32 -> 33 ;
34 [label="fare <= 52.55\ngini = 0.469\nsamples = 24\nvalue = [15, 9]", fillcolor="#f5cdb0"] ;
33 -> 34 ;
35 [label="fare <= 27.135\ngini = 0.375\nsamples = 16\nvalue = [12, 4]", fillcolor="#eeab7b"] ;
34 -> 35 ;
36 [label="age <= 55.0\ngini = 0.48\nsamples = 5\nvalue = [2, 3]", fillcolor="#bddef6"] ;
35 -> 36 ;
37 [label="gini = 0.0\nsamples = 3\nvalue = [0, 3]", fillcolor="#399de5"] ;
36 -> 37 ;
38 [label="gini = 0.0\nsamples = 2\nvalue = [2, 0]", fillcolor="#e58139"] ;
36 -> 38 ;
39 [label="age <= 55.5\ngini = 0.165\nsamples = 11\nvalue = [10, 1]", fillcolor="#e88e4d"] ;
35 -> 39 ;
40 [label="gini = 0.0\nsamples = 9\nvalue = [9, 0]", fillcolor="#e58139"] ;
39 -> 40 ;
41 [label="embarked <= 1.0\ngini = 0.5\nsamples = 2\nvalue = [1, 1]", fillcolor="#ffffff"] ;
39 -> 41 ;
42 [label="gini = 0.0\nsamples = 1\nvalue = [0, 1]", fillcolor="#399de5"] ;
41 -> 42 ;
43 [label="gini = 0.0\nsamples = 1\nvalue = [1, 0]", fillcolor="#e58139"] ;
41 -> 43 ;
44 [label="age <= 22.0\ngini = 0.469\nsamples = 8\nvalue = [3, 5]", fillcolor="#b0d8f5"] ;
34 -> 44 ;
45 [label="gini = 0.0\nsamples = 1\nvalue = [1, 0]", fillcolor="#e58139"] ;
44 -> 45 ;
46 [label="fare <= 79.45\ngini = 0.408\nsamples = 7\nvalue = [2, 5]", fillcolor="#88c4ef"] ;
44 -> 46 ;
47 [label="gini = 0.0\nsamples = 4\nvalue = [0, 4]", fillcolor="#399de5"] ;
46 -> 47 ;
48 [label="age <= 26.5\ngini = 0.444\nsamples = 3\nvalue = [2, 1]", fillcolor="#f2c09c"] ;
46 -> 48 ;
49 [label="gini = 0.0\nsamples = 1\nvalue = [0, 1]", fillcolor="#399de5"] ;
48 -> 49 ;
50 [label="gini = 0.0\nsamples = 2\nvalue = [2, 0]", fillcolor="#e58139"] ;
48 -> 50 ;
51 [label="gini = 0.0\nsamples = 4\nvalue = [4, 0]", fillcolor="#e58139"] ;
33 -> 51 ;
52 [label="embark_town <= 1.5\ngini = 0.154\nsamples = 83\nvalue = [76.0, 7.0]", fillcolor="#e78d4b"] ;
32 -> 52 ;
53 [label="age <= 29.5\ngini = 0.337\nsamples = 14\nvalue = [11, 3]", fillcolor="#eca36f"] ;
52 -> 53 ;
54 [label="age <= 28.5\ngini = 0.42\nsamples = 10\nvalue = [7, 3]", fillcolor="#f0b78e"] ;
53 -> 54 ;
55 [label="age <= 25.0\ngini = 0.219\nsamples = 8\nvalue = [7, 1]", fillcolor="#e99355"] ;
54 -> 55 ;
56 [label="fare <= 5.619\ngini = 0.5\nsamples = 2\nvalue = [1, 1]", fillcolor="#ffffff"] ;
55 -> 56 ;
57 [label="gini = 0.0\nsamples = 1\nvalue = [1, 0]", fillcolor="#e58139"] ;
56 -> 57 ;
58 [label="gini = 0.0\nsamples = 1\nvalue = [0, 1]", fillcolor="#399de5"] ;
56 -> 58 ;
59 [label="gini = 0.0\nsamples = 6\nvalue = [6, 0]", fillcolor="#e58139"] ;
55 -> 59 ;
60 [label="gini = 0.0\nsamples = 2\nvalue = [0, 2]", fillcolor="#399de5"] ;
54 -> 60 ;
61 [label="gini = 0.0\nsamples = 4\nvalue = [4, 0]", fillcolor="#e58139"] ;
53 -> 61 ;
62 [label="fare <= 11.75\ngini = 0.109\nsamples = 69\nvalue = [65, 4]", fillcolor="#e78945"] ;
52 -> 62 ;
63 [label="age <= 21.5\ngini = 0.042\nsamples = 47\nvalue = [46, 1]", fillcolor="#e6843d"] ;
62 -> 63 ;
64 [label="age <= 20.5\ngini = 0.165\nsamples = 11\nvalue = [10, 1]", fillcolor="#e88e4d"] ;
63 -> 64 ;
65 [label="gini = 0.0\nsamples = 9\nvalue = [9, 0]", fillcolor="#e58139"] ;
64 -> 65 ;
66 [label="fare <= 7.523\ngini = 0.5\nsamples = 2\nvalue = [1, 1]", fillcolor="#ffffff"] ;
64 -> 66 ;
67 [label="gini = 0.0\nsamples = 1\nvalue = [1, 0]", fillcolor="#e58139"] ;
66 -> 67 ;
68 [label="gini = 0.0\nsamples = 1\nvalue = [0, 1]", fillcolor="#399de5"] ;
66 -> 68 ;
69 [label="gini = 0.0\nsamples = 36\nvalue = [36, 0]", fillcolor="#e58139"] ;
63 -> 69 ;
70 [label="age <= 31.0\ngini = 0.236\nsamples = 22\nvalue = [19, 3]", fillcolor="#e99558"] ;
62 -> 70 ;
71 [label="gini = 0.0\nsamples = 10\nvalue = [10, 0]", fillcolor="#e58139"] ;
70 -> 71 ;
72 [label="fare <= 13.554\ngini = 0.375\nsamples = 12\nvalue = [9, 3]", fillcolor="#eeab7b"] ;
70 -> 72 ;
73 [label="gini = 0.0\nsamples = 2\nvalue = [0, 2]", fillcolor="#399de5"] ;
72 -> 73 ;
74 [label="fare <= 43.885\ngini = 0.18\nsamples = 10\nvalue = [9, 1]", fillcolor="#e88f4f"] ;
72 -> 74 ;
75 [label="gini = 0.0\nsamples = 9\nvalue = [9, 0]", fillcolor="#e58139"] ;
74 -> 75 ;
76 [label="gini = 0.0\nsamples = 1\nvalue = [0, 1]", fillcolor="#399de5"] ;
74 -> 76 ;
}